<?xml version="1.0"?>
<opencv_storage>
<cascade>
  <stageType>BOOST</stageType>
  <featureType>HAAR</featureType>
  <height>64</height>
  <width>64</width>
  <stageParams>
    <boostType>GAB</boostType>
    <minHitRate>9.9500000476837158e-01</minHitRate>
    <maxFalseAlarm>2.7000001072883606e-01</maxFalseAlarm>
    <weightTrimRate>9.4999999999999996e-01</weightTrimRate>
    <maxDepth>1</maxDepth>
    <maxWeakCount>100</maxWeakCount></stageParams>
  <featureParams>
    <maxCatCount>0</maxCatCount>
    <featSize>1</featSize>
    <mode>BASIC</mode></featureParams>
  <stageNum>18</stageNum>
  <stages>
    <!-- stage 0 -->
    <_>
      <maxWeakCount>3</maxWeakCount>
      <stageThreshold>-6.4508056640625000e-01</stageThreshold>
      <weakClassifiers>
        <_>
          <internalNodes>
            0 -1 0 -7.2378009557723999e-02</internalNodes>
          <leafValues>
            9.5505619049072266e-01 -8.0952382087707520e-01</leafValues></_>
        <_>
          <internalNodes>
            0 -1 21 -1.9809321966022253e-03</internalNodes>
          <leafValues>
            8.6425620317459106e-01 -7.3620891571044922e-01</leafValues></_>
        <_>
          <internalNodes>
            0 -1 45 -9.4892980996519327e-05</internalNodes>
          <leafValues>
            9.0065217018127441e-01 -7.8915697336196899e-01</leafValues></_></weakClassifiers></_>
    <!-- stage 1 -->
    <_>
      <maxWeakCount>3</maxWeakCount>
      <stageThreshold>-6.5346354246139526e-01</stageThreshold>
      <weakClassifiers>
        <_>
          <internalNodes>
            0 -1 2 -1.4885474741458893e-01</internalNodes>
          <leafValues>
            9.1397851705551147e-01 -8.6440676450729370e-01</leafValues></_>
        <_>
          <internalNodes>
            0 -1 4 -1.9493337720632553e-02</internalNodes>
          <leafValues>
            8.9278978109359741e-01 -5.9073221683502197e-01</leafValues></_>
        <_>
          <internalNodes>
            0 -1 67 8.6650485172867775e-03</internalNodes>
          <leafValues>
            -6.3426214456558228e-01 8.0167549848556519e-01</leafValues></_></weakClassifiers></_>
    <!-- stage 2 -->
    <_>
      <maxWeakCount>4</maxWeakCount>
      <stageThreshold>9.5747344195842743e-02</stageThreshold>
      <weakClassifiers>
        <_>
          <internalNodes>
            0 -1 54 8.6084984242916107e-02</internalNodes>
          <leafValues>
            -6.3934427499771118e-01 8.0219781398773193e-01</leafValues></_>
        <_>
          <internalNodes>
            0 -1 5 -9.8773976787924767e-03</internalNodes>
          <leafValues>
            5.5250775814056396e-01 -9.7053045034408569e-01</leafValues></_>
        <_>
          <internalNodes>
            0 -1 19 -4.6397844562307000e-04</internalNodes>
          <leafValues>
            8.1370794773101807e-01 -5.6658720970153809e-01</leafValues></_>
        <_>
          <internalNodes>
            0 -1 40 -1.5423796639879583e-06</internalNodes>
          <leafValues>
            8.3066719770431519e-01 -5.3824388980865479e-01</leafValues></_></weakClassifiers></_>
    <!-- stage 3 -->
    <_>
      <maxWeakCount>4</maxWeakCount>
      <stageThreshold>2.7030500769615173e-01</stageThreshold>
      <weakClassifiers>
        <_>
          <internalNodes>
            0 -1 49 2.4028932675719261e-03</internalNodes>
          <leafValues>
            -4.3661972880363464e-01 8.0246913433074951e-01</leafValues></_>
        <_>
          <internalNodes>
            0 -1 32 -2.1114146511536092e-04</internalNodes>
          <leafValues>
            5.8111602067947388e-01 -8.5595208406448364e-01</leafValues></_>
        <_>
          <internalNodes>
            0 -1 58 -7.9334564507007599e-03</internalNodes>
          <leafValues>
            6.5608763694763184e-01 -6.5754544734954834e-01</leafValues></_>
        <_>
          <internalNodes>
            0 -1 52 -5.5719999363645911e-04</internalNodes>
          <leafValues>
            1. -4.5573472976684570e-01</leafValues></_></weakClassifiers></_>
    <!-- stage 4 -->
    <_>
      <maxWeakCount>6</maxWeakCount>
      <stageThreshold>4.3606883287429810e-01</stageThreshold>
      <weakClassifiers>
        <_>
          <internalNodes>
            0 -1 18 1.5571620315313339e-03</internalNodes>
          <leafValues>
            5.2066117525100708e-01 -9.3548387289047241e-01</leafValues></_>
        <_>
          <internalNodes>
            0 -1 37 -9.8310057073831558e-03</internalNodes>
          <leafValues>
            6.7807400226593018e-01 -5.9897083044052124e-01</leafValues></_>
        <_>
          <internalNodes>
            0 -1 42 3.9685712545178831e-04</internalNodes>
          <leafValues>
            -3.7676101922988892e-01 1.</leafValues></_>
        <_>
          <internalNodes>
            0 -1 56 1.3204303104430437e-03</internalNodes>
          <leafValues>
            -4.2139419913291931e-01 9.7299128770828247e-01</leafValues></_>
        <_>
          <internalNodes>
            0 -1 25 2.1262850612401962e-02</internalNodes>
          <leafValues>
            5.3867805004119873e-01 -9.4222688674926758e-01</leafValues></_>
        <_>
          <internalNodes>
            0 -1 69 -4.7601810365449637e-05</internalNodes>
          <leafValues>
            9.2342126369476318e-01 -5.0318914651870728e-01</leafValues></_></weakClassifiers></_>
    <!-- stage 5 -->
    <_>
      <maxWeakCount>4</maxWeakCount>
      <stageThreshold>1.1870762705802917e-01</stageThreshold>
      <weakClassifiers>
        <_>
          <internalNodes>
            0 -1 60 1.7423335462808609e-02</internalNodes>
          <leafValues>
            -4.7058823704719543e-01 7.8571426868438721e-01</leafValues></_>
        <_>
          <internalNodes>
            0 -1 1 -1.4656552230007946e-04</internalNodes>
          <leafValues>
            -6.1855918169021606e-01 6.7632830142974854e-01</leafValues></_>
        <_>
          <internalNodes>
            0 -1 55 -1.6052550636231899e-03</internalNodes>
          <leafValues>
            7.9085385799407959e-01 -4.6046397089958191e-01</leafValues></_>
        <_>
          <internalNodes>
            0 -1 74 -5.6441646302118897e-04</internalNodes>
          <leafValues>
            -8.3930134773254395e-01 4.9742639064788818e-01</leafValues></_></weakClassifiers></_>
    <!-- stage 6 -->
    <_>
      <maxWeakCount>5</maxWeakCount>
      <stageThreshold>-2.8934645652770996e-01</stageThreshold>
      <weakClassifiers>
        <_>
          <internalNodes>
            0 -1 34 -7.0260167121887207e-03</internalNodes>
          <leafValues>
            7.1739131212234497e-01 -5.3333336114883423e-01</leafValues></_>
        <_>
          <internalNodes>
            0 -1 11 -2.7959214057773352e-03</internalNodes>
          <leafValues>
            -7.1459901332855225e-01 5.3637242317199707e-01</leafValues></_>
        <_>
          <internalNodes>
            0 -1 63 -1.4631312340497971e-02</internalNodes>
          <leafValues>
            6.9799160957336426e-01 -5.6023824214935303e-01</leafValues></_>
        <_>
          <internalNodes>
            0 -1 48 -3.2553116325289011e-03</internalNodes>
          <leafValues>
            9.1325676441192627e-01 -4.3420335650444031e-01</leafValues></_>
        <_>
          <internalNodes>
            0 -1 61 1.8666897085495293e-04</internalNodes>
          <leafValues>
            -5.7767462730407715e-01 7.0230287313461304e-01</leafValues></_></weakClassifiers></_>
    <!-- stage 7 -->
    <_>
      <maxWeakCount>4</maxWeakCount>
      <stageThreshold>1.0156605392694473e-01</stageThreshold>
      <weakClassifiers>
        <_>
          <internalNodes>
            0 -1 27 -5.8254674077033997e-02</internalNodes>
          <leafValues>
            9.1428571939468384e-01 -3.6585366725921631e-01</leafValues></_>
        <_>
          <internalNodes>
            0 -1 73 -6.5991131123155355e-05</internalNodes>
          <leafValues>
            -7.3665904998779297e-01 5.8406186103820801e-01</leafValues></_>
        <_>
          <internalNodes>
            0 -1 35 1.9296644255518913e-02</internalNodes>
          <leafValues>
            4.2775791883468628e-01 -9.3328726291656494e-01</leafValues></_>
        <_>
          <internalNodes>
            0 -1 33 -2.8010611422359943e-03</internalNodes>
          <leafValues>
            9.4544762372970581e-01 -4.6349421143531799e-01</leafValues></_></weakClassifiers></_>
    <!-- stage 8 -->
    <_>
      <maxWeakCount>4</maxWeakCount>
      <stageThreshold>1.6069449484348297e-01</stageThreshold>
      <weakClassifiers>
        <_>
          <internalNodes>
            0 -1 23 -1.3030976988375187e-03</internalNodes>
          <leafValues>
            -8.7500000000000000e-01 5.1666665077209473e-01</leafValues></_>
        <_>
          <internalNodes>
            0 -1 47 5.3544039838016033e-03</internalNodes>
          <leafValues>
            -4.9454513192176819e-01 8.6207425594329834e-01</leafValues></_>
        <_>
          <internalNodes>
            0 -1 26 2.2138844360597432e-04</internalNodes>
          <leafValues>
            -4.1909843683242798e-01 9.6848988533020020e-01</leafValues></_>
        <_>
          <internalNodes>
            0 -1 68 7.8234998509287834e-03</internalNodes>
          <leafValues>
            -7.4363386631011963e-01 5.9271872043609619e-01</leafValues></_></weakClassifiers></_>
    <!-- stage 9 -->
    <_>
      <maxWeakCount>5</maxWeakCount>
      <stageThreshold>-4.8962059617042542e-01</stageThreshold>
      <weakClassifiers>
        <_>
          <internalNodes>
            0 -1 41 -9.5010106451809406e-04</internalNodes>
          <leafValues>
            -8.8571429252624512e-01 5.5555558204650879e-01</leafValues></_>
        <_>
          <internalNodes>
            0 -1 62 -1.2744966079480946e-04</internalNodes>
          <leafValues>
            -7.5637418031692505e-01 4.9011406302452087e-01</leafValues></_>
        <_>
          <internalNodes>
            0 -1 15 -1.7265643924474716e-02</internalNodes>
          <leafValues>
            7.6446360349655151e-01 -5.6054979562759399e-01</leafValues></_>
        <_>
          <internalNodes>
            0 -1 59 1.4184709016262786e-06</internalNodes>
          <leafValues>
            -4.2648521065711975e-01 8.4902888536453247e-01</leafValues></_>
        <_>
          <internalNodes>
            0 -1 31 1.2528022052720189e-03</internalNodes>
          <leafValues>
            -5.7728105783462524e-01 6.5900158882141113e-01</leafValues></_></weakClassifiers></_>
    <!-- stage 10 -->
    <_>
      <maxWeakCount>4</maxWeakCount>
      <stageThreshold>5.9476292133331299e-01</stageThreshold>
      <weakClassifiers>
        <_>
          <internalNodes>
            0 -1 75 5.3093823225935921e-05</internalNodes>
          <leafValues>
            5.9259259700775146e-01 -6.8181818723678589e-01</leafValues></_>
        <_>
          <internalNodes>
            0 -1 13 -5.6565450504422188e-03</internalNodes>
          <leafValues>
            5.1962417364120483e-01 -7.0393782854080200e-01</leafValues></_>
        <_>
          <internalNodes>
            0 -1 51 2.3081205785274506e-02</internalNodes>
          <leafValues>
            3.5418242216110229e-01 -9.7604417800903320e-01</leafValues></_>
        <_>
          <internalNodes>
            0 -1 3 4.4675689423456788e-04</internalNodes>
          <leafValues>
            4.7668078541755676e-01 -8.7163621187210083e-01</leafValues></_></weakClassifiers></_>
    <!-- stage 11 -->
    <_>
      <maxWeakCount>5</maxWeakCount>
      <stageThreshold>-1.0933066159486771e-01</stageThreshold>
      <weakClassifiers>
        <_>
          <internalNodes>
            0 -1 12 -1.5030421316623688e-02</internalNodes>
          <leafValues>
            7.4358975887298584e-01 -3.2432430982589722e-01</leafValues></_>
        <_>
          <internalNodes>
            0 -1 22 -2.1768606529803947e-05</internalNodes>
          <leafValues>
            -5.6186693906784058e-01 6.1570745706558228e-01</leafValues></_>
        <_>
          <internalNodes>
            0 -1 66 -1.9185801502317190e-03</internalNodes>
          <leafValues>
            9.1490602493286133e-01 -3.4658354520797729e-01</leafValues></_>
        <_>
          <internalNodes>
            0 -1 39 -2.2671529222861864e-05</internalNodes>
          <leafValues>
            8.5497021675109863e-01 -3.7468075752258301e-01</leafValues></_>
        <_>
          <internalNodes>
            0 -1 17 -2.1550102246692404e-05</internalNodes>
          <leafValues>
            -7.9944014549255371e-01 4.6921110153198242e-01</leafValues></_></weakClassifiers></_>
    <!-- stage 12 -->
    <_>
      <maxWeakCount>4</maxWeakCount>
      <stageThreshold>1.5519751608371735e-01</stageThreshold>
      <weakClassifiers>
        <_>
          <internalNodes>
            0 -1 16 -4.3941371142864227e-02</internalNodes>
          <leafValues>
            8.8059699535369873e-01 -2.9411765933036804e-01</leafValues></_>
        <_>
          <internalNodes>
            0 -1 76 2.1837024542037398e-04</internalNodes>
          <leafValues>
            -5.6177192926406860e-01 5.8165872097015381e-01</leafValues></_>
        <_>
          <internalNodes>
            0 -1 38 -1.2693629832938313e-04</internalNodes>
          <leafValues>
            7.9916161298751831e-01 -4.0163639187812805e-01</leafValues></_>
        <_>
          <internalNodes>
            0 -1 53 5.8441935107111931e-04</internalNodes>
          <leafValues>
            4.0472319722175598e-01 -9.0542185306549072e-01</leafValues></_></weakClassifiers></_>
    <!-- stage 13 -->
    <_>
      <maxWeakCount>4</maxWeakCount>
      <stageThreshold>4.8770301043987274e-02</stageThreshold>
      <weakClassifiers>
        <_>
          <internalNodes>
            0 -1 10 -4.4786895159631968e-04</internalNodes>
          <leafValues>
            -6.1702126264572144e-01 6.0000002384185791e-01</leafValues></_>
        <_>
          <internalNodes>
            0 -1 9 -2.5402900064364076e-04</internalNodes>
          <leafValues>
            -6.4376062154769897e-01 5.4552340507507324e-01</leafValues></_>
        <_>
          <internalNodes>
            0 -1 30 5.4387311683967710e-04</internalNodes>
          <leafValues>
            5.4231172800064087e-01 -6.9880723953247070e-01</leafValues></_>
        <_>
          <internalNodes>
            0 -1 36 5.1530235214158893e-04</internalNodes>
          <leafValues>
            -3.9794591069221497e-01 9.5473909378051758e-01</leafValues></_></weakClassifiers></_>
    <!-- stage 14 -->
    <_>
      <maxWeakCount>4</maxWeakCount>
      <stageThreshold>7.1428209543228149e-02</stageThreshold>
      <weakClassifiers>
        <_>
          <internalNodes>
            0 -1 20 -3.4547537565231323e-02</internalNodes>
          <leafValues>
            -8.6666667461395264e-01 4.9180328845977783e-01</leafValues></_>
        <_>
          <internalNodes>
            0 -1 7 2.8908208012580872e-02</internalNodes>
          <leafValues>
            4.0853685140609741e-01 -9.3701177835464478e-01</leafValues></_>
        <_>
          <internalNodes>
            0 -1 28 1.5677290502935648e-03</internalNodes>
          <leafValues>
            -4.1923052072525024e-01 9.4182789325714111e-01</leafValues></_>
        <_>
          <internalNodes>
            0 -1 8 -4.0069111855700612e-04</internalNodes>
          <leafValues>
            9.3586719036102295e-01 -3.8830915093421936e-01</leafValues></_></weakClassifiers></_>
    <!-- stage 15 -->
    <_>
      <maxWeakCount>7</maxWeakCount>
      <stageThreshold>2.4692538380622864e-01</stageThreshold>
      <weakClassifiers>
        <_>
          <internalNodes>
            0 -1 14 9.1544792056083679e-02</internalNodes>
          <leafValues>
            4.4186046719551086e-01 -1.</leafValues></_>
        <_>
          <internalNodes>
            0 -1 71 2.4453446269035339e-02</internalNodes>
          <leafValues>
            -3.6359220743179321e-01 9.2951846122741699e-01</leafValues></_>
        <_>
          <internalNodes>
            0 -1 43 -1.2208392843604088e-02</internalNodes>
          <leafValues>
            -9.7553223371505737e-01 3.4577530622482300e-01</leafValues></_>
        <_>
          <internalNodes>
            0 -1 24 -5.5137067101895809e-04</internalNodes>
          <leafValues>
            9.6101808547973633e-01 -4.0899801254272461e-01</leafValues></_>
        <_>
          <internalNodes>
            0 -1 44 7.6022162102162838e-04</internalNodes>
          <leafValues>
            -3.9482805132865906e-01 8.4537345170974731e-01</leafValues></_>
        <_>
          <internalNodes>
            0 -1 50 6.0617551207542419e-04</internalNodes>
          <leafValues>
            -3.3754152059555054e-01 9.7783309221267700e-01</leafValues></_>
        <_>
          <internalNodes>
            0 -1 72 5.7062963605858386e-05</internalNodes>
          <leafValues>
            -2.3747348785400391e-01 9.6424943208694458e-01</leafValues></_></weakClassifiers></_>
    <!-- stage 16 -->
    <_>
      <maxWeakCount>3</maxWeakCount>
      <stageThreshold>3.0358484387397766e-01</stageThreshold>
      <weakClassifiers>
        <_>
          <internalNodes>
            0 -1 46 -9.3037225306034088e-03</internalNodes>
          <leafValues>
            -8.3783781528472900e-01 5.6521737575531006e-01</leafValues></_>
        <_>
          <internalNodes>
            0 -1 6 -1.1517067439854145e-02</internalNodes>
          <leafValues>
            7.3894184827804565e-01 -3.9314994215965271e-01</leafValues></_>
        <_>
          <internalNodes>
            0 -1 65 1.8974659033119678e-03</internalNodes>
          <leafValues>
            4.0248081088066101e-01 -9.1896778345108032e-01</leafValues></_></weakClassifiers></_>
    <!-- stage 17 -->
    <_>
      <maxWeakCount>4</maxWeakCount>
      <stageThreshold>1.6425649821758270e-01</stageThreshold>
      <weakClassifiers>
        <_>
          <internalNodes>
            0 -1 70 1.3953654561191797e-03</internalNodes>
          <leafValues>
            6.2886595726013184e-01 -4.9090909957885742e-01</leafValues></_>
        <_>
          <internalNodes>
            0 -1 29 1.4382850378751755e-02</internalNodes>
          <leafValues>
            3.8137516379356384e-01 -9.0021991729736328e-01</leafValues></_>
        <_>
          <internalNodes>
            0 -1 64 2.6062685064971447e-03</internalNodes>
          <leafValues>
            -3.9420497417449951e-01 8.7086874246597290e-01</leafValues></_>
        <_>
          <internalNodes>
            0 -1 57 1.5581579646095634e-05</internalNodes>
          <leafValues>
            -4.3525829911231995e-01 7.2809034585952759e-01</leafValues></_></weakClassifiers></_></stages>
  <features>
    <_>
      <rects>
        <_>
          0 0 57 34 -1.</_>
        <_>
          19 0 19 34 3.</_></rects>
      <tilted>0</tilted></_>
    <_>
      <rects>
        <_>
          0 1 4 10 -1.</_>
        <_>
          0 6 4 5 2.</_></rects>
      <tilted>0</tilted></_>
    <_>
      <rects>
        <_>
          0 2 63 59 -1.</_>
        <_>
          21 2 21 59 3.</_></rects>
      <tilted>0</tilted></_>
    <_>
      <rects>
        <_>
          0 8 3 12 -1.</_>
        <_>
          0 12 3 4 3.</_></rects>
      <tilted>0</tilted></_>
    <_>
      <rects>
        <_>
          0 13 16 26 -1.</_>
        <_>
          8 13 8 26 2.</_></rects>
      <tilted>0</tilted></_>
    <_>
      <rects>
        <_>
          0 14 50 43 -1.</_>
        <_>
          25 14 25 43 2.</_></rects>
      <tilted>0</tilted></_>
    <_>
      <rects>
        <_>
          0 25 10 17 -1.</_>
        <_>
          5 25 5 17 2.</_></rects>
      <tilted>0</tilted></_>
    <_>
      <rects>
        <_>
          0 45 56 15 -1.</_>
        <_>
          28 45 28 15 2.</_></rects>
      <tilted>0</tilted></_>
    <_>
      <rects>
        <_>
          0 59 33 3 -1.</_>
        <_>
          0 60 33 1 3.</_></rects>
      <tilted>0</tilted></_>
    <_>
      <rects>
        <_>
          0 63 21 1 -1.</_>
        <_>
          7 63 7 1 3.</_></rects>
      <tilted>0</tilted></_>
    <_>
      <rects>
        <_>
          1 0 12 3 -1.</_>
        <_>
          7 0 6 3 2.</_></rects>
      <tilted>0</tilted></_>
    <_>
      <rects>
        <_>
          1 0 63 1 -1.</_>
        <_>
          22 0 21 1 3.</_></rects>
      <tilted>0</tilted></_>
    <_>
      <rects>
        <_>
          1 14 18 10 -1.</_>
        <_>
          10 14 9 10 2.</_></rects>
      <tilted>0</tilted></_>
    <_>
      <rects>
        <_>
          2 7 30 32 -1.</_>
        <_>
          12 7 10 32 3.</_></rects>
      <tilted>0</tilted></_>
    <_>
      <rects>
        <_>
          2 20 62 32 -1.</_>
        <_>
          2 20 31 16 2.</_>
        <_>
          33 36 31 16 2.</_></rects>
      <tilted>0</tilted></_>
    <_>
      <rects>
        <_>
          2 27 51 30 -1.</_>
        <_>
          2 37 51 10 3.</_></rects>
      <tilted>0</tilted></_>
    <_>
      <rects>
        <_>
          3 3 32 14 -1.</_>
        <_>
          19 3 16 14 2.</_></rects>
      <tilted>0</tilted></_>
    <_>
      <rects>
        <_>
          3 9 3 3 -1.</_>
        <_>
          3 10 3 1 3.</_></rects>
      <tilted>0</tilted></_>
    <_>
      <rects>
        <_>
          4 2 22 4 -1.</_>
        <_>
          15 2 11 4 2.</_></rects>
      <tilted>0</tilted></_>
    <_>
      <rects>
        <_>
          4 12 2 37 -1.</_>
        <_>
          5 12 1 37 2.</_></rects>
      <tilted>0</tilted></_>
    <_>
      <rects>
        <_>
          4 49 58 10 -1.</_>
        <_>
          33 49 29 10 2.</_></rects>
      <tilted>0</tilted></_>
    <_>
      <rects>
        <_>
          6 3 10 22 -1.</_>
        <_>
          11 3 5 22 2.</_></rects>
      <tilted>0</tilted></_>
    <_>
      <rects>
        <_>
          6 7 2 4 -1.</_>
        <_>
          6 9 2 2 2.</_></rects>
      <tilted>0</tilted></_>
    <_>
      <rects>
        <_>
          7 0 27 2 -1.</_>
        <_>
          16 0 9 2 3.</_></rects>
      <tilted>0</tilted></_>
    <_>
      <rects>
        <_>
          7 61 38 3 -1.</_>
        <_>
          7 62 38 1 3.</_></rects>
      <tilted>0</tilted></_>
    <_>
      <rects>
        <_>
          10 47 54 14 -1.</_>
        <_>
          28 47 18 14 3.</_></rects>
      <tilted>0</tilted></_>
    <_>
      <rects>
        <_>
          11 58 3 6 -1.</_>
        <_>
          11 60 3 2 3.</_></rects>
      <tilted>0</tilted></_>
    <_>
      <rects>
        <_>
          12 0 39 18 -1.</_>
        <_>
          12 9 39 9 2.</_></rects>
      <tilted>0</tilted></_>
    <_>
      <rects>
        <_>
          12 57 18 6 -1.</_>
        <_>
          12 59 18 2 3.</_></rects>
      <tilted>0</tilted></_>
    <_>
      <rects>
        <_>
          13 32 36 8 -1.</_>
        <_>
          31 32 18 8 2.</_></rects>
      <tilted>0</tilted></_>
    <_>
      <rects>
        <_>
          16 3 48 1 -1.</_>
        <_>
          32 3 16 1 3.</_></rects>
      <tilted>0</tilted></_>
    <_>
      <rects>
        <_>
          17 52 18 6 -1.</_>
        <_>
          23 52 6 6 3.</_></rects>
      <tilted>0</tilted></_>
    <_>
      <rects>
        <_>
          18 0 2 26 -1.</_>
        <_>
          18 13 2 13 2.</_></rects>
      <tilted>0</tilted></_>
    <_>
      <rects>
        <_>
          18 58 28 6 -1.</_>
        <_>
          18 60 28 2 3.</_></rects>
      <tilted>0</tilted></_>
    <_>
      <rects>
        <_>
          19 0 9 16 -1.</_>
        <_>
          19 8 9 8 2.</_></rects>
      <tilted>0</tilted></_>
    <_>
      <rects>
        <_>
          20 38 44 26 -1.</_>
        <_>
          20 38 22 13 2.</_>
        <_>
          42 51 22 13 2.</_></rects>
      <tilted>0</tilted></_>
    <_>
      <rects>
        <_>
          20 57 38 3 -1.</_>
        <_>
          20 58 38 1 3.</_></rects>
      <tilted>0</tilted></_>
    <_>
      <rects>
        <_>
          22 0 25 8 -1.</_>
        <_>
          22 4 25 4 2.</_></rects>
      <tilted>0</tilted></_>
    <_>
      <rects>
        <_>
          23 26 12 1 -1.</_>
        <_>
          27 26 4 1 3.</_></rects>
      <tilted>0</tilted></_>
    <_>
      <rects>
        <_>
          23 29 2 3 -1.</_>
        <_>
          23 30 2 1 3.</_></rects>
      <tilted>0</tilted></_>
    <_>
      <rects>
        <_>
          23 59 1 2 -1.</_>
        <_>
          23 60 1 1 2.</_></rects>
      <tilted>0</tilted></_>
    <_>
      <rects>
        <_>
          24 0 26 1 -1.</_>
        <_>
          37 0 13 1 2.</_></rects>
      <tilted>0</tilted></_>
    <_>
      <rects>
        <_>
          25 8 6 8 -1.</_>
        <_>
          27 8 2 8 3.</_></rects>
      <tilted>0</tilted></_>
    <_>
      <rects>
        <_>
          25 13 20 24 -1.</_>
        <_>
          25 13 10 12 2.</_>
        <_>
          35 25 10 12 2.</_></rects>
      <tilted>0</tilted></_>
    <_>
      <rects>
        <_>
          25 47 6 15 -1.</_>
        <_>
          27 47 2 15 3.</_></rects>
      <tilted>0</tilted></_>
    <_>
      <rects>
        <_>
          26 4 4 4 -1.</_>
        <_>
          26 6 4 2 2.</_></rects>
      <tilted>0</tilted></_>
    <_>
      <rects>
        <_>
          26 7 4 24 -1.</_>
        <_>
          26 19 4 12 2.</_></rects>
      <tilted>0</tilted></_>
    <_>
      <rects>
        <_>
          26 49 18 7 -1.</_>
        <_>
          35 49 9 7 2.</_></rects>
      <tilted>0</tilted></_>
    <_>
      <rects>
        <_>
          27 30 6 30 -1.</_>
        <_>
          27 30 3 15 2.</_>
        <_>
          30 45 3 15 2.</_></rects>
      <tilted>0</tilted></_>
    <_>
      <rects>
        <_>
          28 42 27 15 -1.</_>
        <_>
          37 42 9 15 3.</_></rects>
      <tilted>0</tilted></_>
    <_>
      <rects>
        <_>
          28 43 6 16 -1.</_>
        <_>
          30 43 2 16 3.</_></rects>
      <tilted>0</tilted></_>
    <_>
      <rects>
        <_>
          29 15 13 36 -1.</_>
        <_>
          29 27 13 12 3.</_></rects>
      <tilted>0</tilted></_>
    <_>
      <rects>
        <_>
          30 6 3 56 -1.</_>
        <_>
          31 6 1 56 3.</_></rects>
      <tilted>0</tilted></_>
    <_>
      <rects>
        <_>
          31 0 14 1 -1.</_>
        <_>
          38 0 7 1 2.</_></rects>
      <tilted>0</tilted></_>
    <_>
      <rects>
        <_>
          32 3 32 52 -1.</_>
        <_>
          48 3 16 52 2.</_></rects>
      <tilted>0</tilted></_>
    <_>
      <rects>
        <_>
          33 2 8 9 -1.</_>
        <_>
          33 5 8 3 3.</_></rects>
      <tilted>0</tilted></_>
    <_>
      <rects>
        <_>
          34 29 6 27 -1.</_>
        <_>
          36 29 2 27 3.</_></rects>
      <tilted>0</tilted></_>
    <_>
      <rects>
        <_>
          36 31 7 3 -1.</_>
        <_>
          36 32 7 1 3.</_></rects>
      <tilted>0</tilted></_>
    <_>
      <rects>
        <_>
          38 16 24 25 -1.</_>
        <_>
          46 16 8 25 3.</_></rects>
      <tilted>0</tilted></_>
    <_>
      <rects>
        <_>
          38 61 2 2 -1.</_>
        <_>
          38 61 1 1 2.</_>
        <_>
          39 62 1 1 2.</_></rects>
      <tilted>0</tilted></_>
    <_>
      <rects>
        <_>
          42 5 20 14 -1.</_>
        <_>
          52 5 10 14 2.</_></rects>
      <tilted>0</tilted></_>
    <_>
      <rects>
        <_>
          42 56 12 6 -1.</_>
        <_>
          42 56 6 3 2.</_>
        <_>
          48 59 6 3 2.</_></rects>
      <tilted>0</tilted></_>
    <_>
      <rects>
        <_>
          43 0 12 2 -1.</_>
        <_>
          47 0 4 2 3.</_></rects>
      <tilted>0</tilted></_>
    <_>
      <rects>
        <_>
          43 0 6 48 -1.</_>
        <_>
          43 16 6 16 3.</_></rects>
      <tilted>0</tilted></_>
    <_>
      <rects>
        <_>
          43 51 13 9 -1.</_>
        <_>
          43 54 13 3 3.</_></rects>
      <tilted>0</tilted></_>
    <_>
      <rects>
        <_>
          44 60 15 4 -1.</_>
        <_>
          49 60 5 4 3.</_></rects>
      <tilted>0</tilted></_>
    <_>
      <rects>
        <_>
          45 51 3 12 -1.</_>
        <_>
          45 57 3 6 2.</_></rects>
      <tilted>0</tilted></_>
    <_>
      <rects>
        <_>
          48 13 14 24 -1.</_>
        <_>
          55 13 7 24 2.</_></rects>
      <tilted>0</tilted></_>
    <_>
      <rects>
        <_>
          49 27 14 29 -1.</_>
        <_>
          56 27 7 29 2.</_></rects>
      <tilted>0</tilted></_>
    <_>
      <rects>
        <_>
          50 13 3 3 -1.</_>
        <_>
          50 14 3 1 3.</_></rects>
      <tilted>0</tilted></_>
    <_>
      <rects>
        <_>
          50 55 14 4 -1.</_>
        <_>
          57 55 7 4 2.</_></rects>
      <tilted>0</tilted></_>
    <_>
      <rects>
        <_>
          52 10 12 24 -1.</_>
        <_>
          58 10 6 24 2.</_></rects>
      <tilted>0</tilted></_>
    <_>
      <rects>
        <_>
          52 35 3 4 -1.</_>
        <_>
          53 35 1 4 3.</_></rects>
      <tilted>0</tilted></_>
    <_>
      <rects>
        <_>
          53 1 9 3 -1.</_>
        <_>
          56 1 3 3 3.</_></rects>
      <tilted>0</tilted></_>
    <_>
      <rects>
        <_>
          53 1 10 6 -1.</_>
        <_>
          58 1 5 6 2.</_></rects>
      <tilted>0</tilted></_>
    <_>
      <rects>
        <_>
          54 2 4 2 -1.</_>
        <_>
          56 2 2 2 2.</_></rects>
      <tilted>0</tilted></_>
    <_>
      <rects>
        <_>
          60 15 2 30 -1.</_>
        <_>
          61 15 1 30 2.</_></rects>
      <tilted>0</tilted></_></features></cascade>
</opencv_storage>
